digraph Tree {
node [shape=box, style="filled", color="black", fontname="helvetica"] ;
edge [fontname="helvetica"] ;
0 [label="lead_time <= 151.5\ngini = 0.439\nsamples = 27206\nvalue = [8859, 18347]\nclass = Canceled", fillcolor="#99ccf2"] ;
1 [label="no_of_special_requests <= 0.5\ngini = 0.353\nsamples = 21833\nvalue = [5005, 16828]\nclass = Canceled", fillcolor="#74baed"] ;
0 -> 1 [labeldistance=2.5, labelangle=45, headlabel="True"] ;
2 [label="market_segment_type_Online <= 0.5\ngini = 0.442\nsamples = 11360\nvalue = [3749, 7611]\nclass = Canceled", fillcolor="#9bcdf2"] ;
1 -> 2 ;
3 [label="lead_time <= 92.5\ngini = 0.245\nsamples = 5793\nvalue = [830, 4963]\nclass = Canceled", fillcolor="#5aade9"] ;
2 -> 3 ;
4 [label="(...)", fillcolor="#C0C0C0"] ;
3 -> 4 ;
149 [label="(...)", fillcolor="#C0C0C0"] ;
3 -> 149 ;
332 [label="lead_time <= 13.5\ngini = 0.499\nsamples = 5567\nvalue = [2919, 2648]\nclass = Not_Canceled", fillcolor="#fdf3ed"] ;
2 -> 332 ;
333 [label="(...)", fillcolor="#C0C0C0"] ;
332 -> 333 ;
460 [label="(...)", fillcolor="#C0C0C0"] ;
332 -> 460 ;
781 [label="no_of_special_requests <= 1.5\ngini = 0.211\nsamples = 10473\nvalue = [1256, 9217]\nclass = Canceled", fillcolor="#54aae9"] ;
1 -> 781 ;
782 [label="market_segment_type_Online <= 0.5\ngini = 0.26\nsamples = 7175\nvalue = [1102, 6073]\nclass = Canceled", fillcolor="#5dafea"] ;
781 -> 782 ;
783 [label="(...)", fillcolor="#C0C0C0"] ;
782 -> 783 ;
824 [label="(...)", fillcolor="#C0C0C0"] ;
782 -> 824 ;
1023 [label="lead_time <= 89.5\ngini = 0.089\nsamples = 3298\nvalue = [154, 3144]\nclass = Canceled", fillcolor="#43a2e6"] ;
781 -> 1023 ;
1024 [label="(...)", fillcolor="#C0C0C0"] ;
1023 -> 1024 ;
1065 [label="(...)", fillcolor="#C0C0C0"] ;
1023 -> 1065 ;
1132 [label="avg_price_per_room <= 100.04\ngini = 0.406\nsamples = 5373\nvalue = [3854, 1519]\nclass = Not_Canceled", fillcolor="#efb387"] ;
0 -> 1132 [labeldistance=2.5, labelangle=-45, headlabel="False"] ;
1133 [label="no_of_special_requests <= 0.5\ngini = 0.499\nsamples = 2983\nvalue = [1573, 1410]\nclass = Not_Canceled", fillcolor="#fcf2ea"] ;
1132 -> 1133 ;
1134 [label="market_segment_type_Online <= 0.5\ngini = 0.463\nsamples = 2082\nvalue = [1325, 757]\nclass = Not_Canceled", fillcolor="#f4c9aa"] ;
1133 -> 1134 ;
1135 [label="(...)", fillcolor="#C0C0C0"] ;
1134 -> 1135 ;
1282 [label="(...)", fillcolor="#C0C0C0"] ;
1134 -> 1282 ;
1317 [label="no_of_weekend_nights <= 0.5\ngini = 0.399\nsamples = 901\nvalue = [248, 653]\nclass = Canceled", fillcolor="#84c2ef"] ;
1133 -> 1317 ;
1318 [label="(...)", fillcolor="#C0C0C0"] ;
1317 -> 1318 ;
1377 [label="(...)", fillcolor="#C0C0C0"] ;
1317 -> 1377 ;
1478 [label="no_of_special_requests <= 2.5\ngini = 0.087\nsamples = 2390\nvalue = [2281, 109]\nclass = Not_Canceled", fillcolor="#e68742"] ;
1132 -> 1478 ;
1479 [label="room_type_reserved_Room_Type 1 <= 0.5\ngini = 0.059\nsamples = 2353\nvalue = [2281, 72]\nclass = Not_Canceled", fillcolor="#e6853f"] ;
1478 -> 1479 ;
1480 [label="(...)", fillcolor="#C0C0C0"] ;
1479 -> 1480 ;
1553 [label="(...)", fillcolor="#C0C0C0"] ;
1479 -> 1553 ;
1608 [label="gini = 0.0\nsamples = 37\nvalue = [0, 37]\nclass = Canceled", fillcolor="#399de5"] ;
1478 -> 1608 ;
}